{"mechanism": "DeepSeek-V3-like routing (sigmoid + e_score_correction_bias selection + group-limited top-k + routed_scaling_factor), L0 mechanism only", "source": "transformers v5.6.2 DeepseekV3MoE.route_tokens_to_experts", "hidden_size": 16, "moe_intermediate_size": 8, "shared_intermediate_size": 8, "n_routed_experts": 8, "n_group": 4, "topk_group": 2, "top_k": 2, "n_shared_experts": 1, "routed_scaling_factor": 2.5, "norm_topk_prob": true, "scoring_func": "sigmoid", "tokens": 6, "dense_combine_weights": [0.0, 0.0, 0.0, 0.0, 1.25, 0.0, 1.25, 0.0, 0.0, 0.0, 0.0, 0.0, 1.25, 0.0, 1.25, 0.0, 0.0, 0.0, 0.0, 0.0, 1.25, 0.0, 1.25, 0.0, 1.6666667461395264, 0.0, 0.0, 0.0, 0.8333333730697632, 0.0, 0.0, 0.0, 1.6666667461395264, 0.0, 0.0, 0.0, 0.8333333730697632, 0.0, 0.0, 0.0, 0.0, 0.0, 0.0, 0.0, 1.25, 0.0, 1.25, 0.0], "block_out": [-0.07812684097921367, 0.07886576354447207, -0.05681448466475193, -0.05076682993710899, 0.1199784195414584, -0.026877212968531558, -0.027825722979546202, -0.0440875281146747, 0.0497403593856948, -0.0603353819313278, -0.09494964729885726, -0.06531709743224254, -0.03536793532857563, 0.07477041848064267, 0.06062513555472453, 0.03259262702006722, -0.1863585314220046, 0.046364238065835964, -0.12814945770469793, -0.07676642533569382, 0.22641275053407373, 0.060292327204100285, 0.03844131162279424, 0.024958281655256036, 0.14112521496231412, -0.10046951074414474, -0.1510394685626296, -0.09725954173394473, 0.05178137022385636, 0.039650027009826165, 0.28964856390156496, 0.253228177731897, -0.05234876245027756, 0.07001231107873884, 0.02280392047174094, 0.0237666014173837, 0.0762413903538173, 0.0019753427491963137, 0.058087010598002545, 0.06685461703522377, -0.0034958388903936926, -0.059942420512445395, 0.060895663917218706, -0.15073558802430287, -0.02641539983807133, -0.025381755687229984, -0.019324698640475462, 0.00476838507780412, -0.18474215955213744, 0.20313669378081017, 0.1325257951152991, -0.025838880674352617, 0.284135421939728, 0.09519823241217051, -0.05195461402259107, 0.03796796815306044, 0.04750443903430451, 0.1171576660861987, -0.11891796834833615, -0.1310206515123975, 0.1376925578748204, 0.1610445388633131, -0.07584674821307538, 0.041739504041071504, -0.008003502417017404, 0.08779245832269922, 0.10158914386348121, 0.15821969405967437, -0.006697546806767638, 0.019960634118327738, 0.0859035579801916, 0.1954972272133496, 0.002043533318037944, 0.08619466576946891, 0.15602017235552218, -0.16894040099694158, -0.03160680735986513, -0.08880953267703433, -0.19367636109425518, -0.2125866415756358, -0.06382980627906891, 0.08342391066361779, 0.00763828671214553, -0.042133639757408504, 0.05643410881681024, -0.018382681584781832, 0.026836181417772206, -0.00395105294950252, -0.009811099544740411, -0.00765157140101173, 0.039405737630593005, -0.04928255256944947, 0.046816982358570965, 0.015088297867883422, -0.00644126676003361, 0.05274290970930994], "selected_experts": [[4, 6], [4, 6], [4, 6], [0, 4], [0, 4], [4, 6]], "selection_margins": [0.05559806899219455, 0.05559806899219455, 0.05559806899219455, 0.13838899639676172, 0.13838899639676172, 0.05559806899219455], "min_selection_margin": 0.05559806899219455}